digraph Tree {
node [shape=box] ;
0 [label="recoveries <= -0.133\ngini = 0.142\nsamples = 598978\nvalue = [552822, 46156]"] ;
1 [label="out_prncp_inv <= -0.811\ngini = 0.074\nsamples = 574792\nvalue = [552822, 21970]"] ;
0 -> 1 [labeldistance=2.5, labelangle=45, headlabel="True"] ;
3 [label="total_rec_prncp <= -0.683\ngini = 0.171\nsamples = 220553\nvalue = [199738, 20815]"] ;
1 -> 3 ;
5 [label="term <= -1.386\ngini = 0.474\nsamples = 20926\nvalue = [8060, 12866]"] ;
3 -> 5 ;
7 [label="total_rec_prncp <= -0.972\ngini = 0.13\nsamples = 8530\nvalue = [7932, 598]"] ;
5 -> 7 ;
17 [label="term <= -1.627\ngini = 0.047\nsamples = 496\nvalue = [12, 484]"] ;
7 -> 17 ;
41 [label="gini = 0.0\nsamples = 11\nvalue = [11, 0]"] ;
17 -> 41 ;
42 [label="total_rev_hi_lim <= 1.026\ngini = 0.004\nsamples = 485\nvalue = [1, 484]"] ;
17 -> 42 ;
181 [label="gini = 0.0\nsamples = 480\nvalue = [0, 480]"] ;
42 -> 181 ;
182 [label="gini = 0.32\nsamples = 5\nvalue = [1, 4]"] ;
42 -> 182 ;
18 [label="last_pymnt_amnt <= -0.496\ngini = 0.028\nsamples = 8034\nvalue = [7920, 114]"] ;
7 -> 18 ;
71 [label="total_rec_prncp <= -0.828\ngini = 0.08\nsamples = 2471\nvalue = [2368, 103]"] ;
18 -> 71 ;
73 [label="term <= -1.507\ngini = 0.163\nsamples = 1050\nvalue = [956, 94]"] ;
71 -> 73 ;
75 [label="grade <= -1.518\ngini = 0.029\nsamples = 968\nvalue = [954, 14]"] ;
73 -> 75 ;
171 [label="total_rev_hi_lim <= -0.825\ngini = 0.025\nsamples = 956\nvalue = [944, 12]"] ;
75 -> 171 ;
189 [label="gini = 0.198\nsamples = 18\nvalue = [16, 2]"] ;
171 -> 189 ;
190 [label="gini = 0.021\nsamples = 938\nvalue = [928, 10]"] ;
171 -> 190 ;
172 [label="verification_status <= -0.704\ngini = 0.278\nsamples = 12\nvalue = [10, 2]"] ;
75 -> 172 ;
173 [label="gini = 0.48\nsamples = 5\nvalue = [3, 2]"] ;
172 -> 173 ;
174 [label="gini = 0.0\nsamples = 7\nvalue = [7, 0]"] ;
172 -> 174 ;
76 [label="grade <= -1.53\ngini = 0.048\nsamples = 82\nvalue = [2, 80]"] ;
73 -> 76 ;
133 [label="gini = 0.48\nsamples = 5\nvalue = [2, 3]"] ;
76 -> 133 ;
134 [label="gini = 0.0\nsamples = 77\nvalue = [0, 77]"] ;
76 -> 134 ;
74 [label="grade <= -1.383\ngini = 0.013\nsamples = 1421\nvalue = [1412, 9]"] ;
71 -> 74 ;
155 [label="term <= -1.431\ngini = 0.007\nsamples = 1386\nvalue = [1381, 5]"] ;
74 -> 155 ;
209 [label="gini = 0.0\nsamples = 1190\nvalue = [1190, 0]"] ;
155 -> 209 ;
210 [label="total_rec_prncp <= -0.745\ngini = 0.05\nsamples = 196\nvalue = [191, 5]"] ;
155 -> 210 ;
211 [label="gini = 0.0\nsamples = 5\nvalue = [0, 5]"] ;
210 -> 211 ;
212 [label="gini = 0.0\nsamples = 191\nvalue = [191, 0]"] ;
210 -> 212 ;
156 [label="total_rec_prncp <= -0.732\ngini = 0.202\nsamples = 35\nvalue = [31, 4]"] ;
74 -> 156 ;
157 [label="gini = 0.32\nsamples = 5\nvalue = [1, 4]"] ;
156 -> 157 ;
158 [label="gini = 0.0\nsamples = 30\nvalue = [30, 0]"] ;
156 -> 158 ;
72 [label="total_rec_late_fee <= 3.43\ngini = 0.004\nsamples = 5563\nvalue = [5552, 11]"] ;
18 -> 72 ;
167 [label="total_rev_hi_lim <= 1.001\ngini = 0.003\nsamples = 5511\nvalue = [5504, 7]"] ;
72 -> 167 ;
219 [label="term <= -1.398\ngini = 0.002\nsamples = 5402\nvalue = [5397, 5]"] ;
167 -> 219 ;
229 [label="last_pymnt_amnt <= -0.49\ngini = 0.001\nsamples = 5355\nvalue = [5351, 4]"] ;
219 -> 229 ;
239 [label="gini = 0.027\nsamples = 73\nvalue = [72, 1]"] ;
229 -> 239 ;
240 [label="gini = 0.001\nsamples = 5282\nvalue = [5279, 3]"] ;
229 -> 240 ;
230 [label="tot_cur_bal <= 0.774\ngini = 0.042\nsamples = 47\nvalue = [46, 1]"] ;
219 -> 230 ;
231 [label="gini = 0.0\nsamples = 42\nvalue = [42, 0]"] ;
230 -> 231 ;
232 [label="gini = 0.32\nsamples = 5\nvalue = [4, 1]"] ;
230 -> 232 ;
220 [label="earliest_cr_line <= 1.257\ngini = 0.036\nsamples = 109\nvalue = [107, 2]"] ;
167 -> 220 ;
221 [label="gini = 0.0\nsamples = 98\nvalue = [98, 0]"] ;
220 -> 221 ;
222 [label="earliest_cr_line <= 1.487\ngini = 0.298\nsamples = 11\nvalue = [9, 2]"] ;
220 -> 222 ;
223 [label="gini = 0.48\nsamples = 5\nvalue = [3, 2]"] ;
222 -> 223 ;
224 [label="gini = 0.0\nsamples = 6\nvalue = [6, 0]"] ;
222 -> 224 ;
168 [label="total_rec_prncp <= -0.93\ngini = 0.142\nsamples = 52\nvalue = [48, 4]"] ;
72 -> 168 ;
169 [label="gini = 0.494\nsamples = 9\nvalue = [5, 4]"] ;
168 -> 169 ;
170 [label="gini = 0.0\nsamples = 43\nvalue = [43, 0]"] ;
168 -> 170 ;
8 [label="last_pymnt_amnt <= -0.174\ngini = 0.02\nsamples = 12396\nvalue = [128, 12268]"] ;
5 -> 8 ;
25 [label="grade <= -1.426\ngini = 0.005\nsamples = 12293\nvalue = [29, 12264]"] ;
8 -> 25 ;
39 [label="total_rec_prncp <= -0.955\ngini = 0.496\nsamples = 46\nvalue = [25, 21]"] ;
25 -> 39 ;
53 [label="gini = 0.0\nsamples = 17\nvalue = [0, 17]"] ;
39 -> 53 ;
54 [label="total_rec_int <= -0.784\ngini = 0.238\nsamples = 29\nvalue = [25, 4]"] ;
39 -> 54 ;
113 [label="last_pymnt_d <= -1.096\ngini = 0.08\nsamples = 24\nvalue = [23, 1]"] ;
54 -> 113 ;
201 [label="gini = 0.32\nsamples = 5\nvalue = [4, 1]"] ;
113 -> 201 ;
202 [label="gini = 0.0\nsamples = 19\nvalue = [19, 0]"] ;
113 -> 202 ;
114 [label="gini = 0.48\nsamples = 5\nvalue = [2, 3]"] ;
54 -> 114 ;
40 [label="grade <= -1.401\ngini = 0.001\nsamples = 12247\nvalue = [4, 12243]"] ;
25 -> 40 ;
191 [label="total_rec_prncp <= -0.833\ngini = 0.159\nsamples = 23\nvalue = [2, 21]"] ;
40 -> 191 ;
193 [label="gini = 0.0\nsamples = 18\nvalue = [0, 18]"] ;
191 -> 193 ;
194 [label="gini = 0.48\nsamples = 5\nvalue = [2, 3]"] ;
191 -> 194 ;
192 [label="revol_bal <= 9.317\ngini = 0.0\nsamples = 12224\nvalue = [2, 12222]"] ;
40 -> 192 ;
213 [label="verification_status <= -1.045\ngini = 0.0\nsamples = 12213\nvalue = [1, 12212]"] ;
192 -> 213 ;
233 [label="verification_status <= -1.049\ngini = 0.029\nsamples = 67\nvalue = [1, 66]"] ;
213 -> 233 ;
235 [label="gini = 0.0\nsamples = 62\nvalue = [0, 62]"] ;
233 -> 235 ;
236 [label="gini = 0.32\nsamples = 5\nvalue = [1, 4]"] ;
233 -> 236 ;
234 [label="gini = 0.0\nsamples = 12146\nvalue = [0, 12146]"] ;
213 -> 234 ;
214 [label="tot_cur_bal <= 4.637\ngini = 0.165\nsamples = 11\nvalue = [1, 10]"] ;
192 -> 214 ;
215 [label="gini = 0.0\nsamples = 6\nvalue = [0, 6]"] ;
214 -> 215 ;
216 [label="gini = 0.32\nsamples = 5\nvalue = [1, 4]"] ;
214 -> 216 ;
26 [label="dti <= -1.853\ngini = 0.075\nsamples = 103\nvalue = [99, 4]"] ;
8 -> 26 ;
109 [label="gini = 0.5\nsamples = 6\nvalue = [3, 3]"] ;
26 -> 109 ;
110 [label="total_rec_prncp <= -0.699\ngini = 0.02\nsamples = 97\nvalue = [96, 1]"] ;
26 -> 110 ;
183 [label="gini = 0.0\nsamples = 92\nvalue = [92, 0]"] ;
110 -> 183 ;
184 [label="gini = 0.32\nsamples = 5\nvalue = [4, 1]"] ;
110 -> 184 ;
6 [label="last_pymnt_amnt <= -0.28\ngini = 0.076\nsamples = 199627\nvalue = [191678, 7949]"] ;
3 -> 6 ;
11 [label="total_rec_prncp <= -0.25\ngini = 0.256\nsamples = 51228\nvalue = [43490, 7738]"] ;
6 -> 11 ;
13 [label="term <= -1.026\ngini = 0.449\nsamples = 14627\nvalue = [9650, 4977]"] ;
11 -> 13 ;
15 [label="grade <= -0.959\ngini = 0.026\nsamples = 9682\nvalue = [9554, 128]"] ;
13 -> 15 ;
89 [label="total_rec_prncp <= -0.54\ngini = 0.024\nsamples = 9603\nvalue = [9488, 115]"] ;
15 -> 89 ;
119 [label="grade <= -1.185\ngini = 0.055\nsamples = 3058\nvalue = [2971, 87]"] ;
89 -> 119 ;
121 [label="term <= -1.266\ngini = 0.01\nsamples = 2984\nvalue = [2969, 15]"] ;
119 -> 121 ;
123 [label="gini = 0.003\nsamples = 2960\nvalue = [2955, 5]"] ;
121 -> 123 ;
124 [label="gini = 0.486\nsamples = 24\nvalue = [14, 10]"] ;
121 -> 124 ;
122 [label="total_rec_prncp <= -0.556\ngini = 0.053\nsamples = 74\nvalue = [2, 72]"] ;
119 -> 122 ;
135 [label="gini = 0.0\nsamples = 69\nvalue = [0, 69]"] ;
122 -> 135 ;
136 [label="gini = 0.48\nsamples = 5\nvalue = [2, 3]"] ;
122 -> 136 ;
120 [label="total_rec_late_fee <= 10.488\ngini = 0.009\nsamples = 6545\nvalue = [6517, 28]"] ;
89 -> 120 ;
199 [label="total_rec_prncp <= -0.432\ngini = 0.008\nsamples = 6539\nvalue = [6512, 27]"] ;
120 -> 199 ;
205 [label="gini = 0.02\nsamples = 2326\nvalue = [2302, 24]"] ;
199 -> 205 ;
206 [label="gini = 0.001\nsamples = 4213\nvalue = [4210, 3]"] ;
199 -> 206 ;
200 [label="gini = 0.278\nsamples = 6\nvalue = [5, 1]"] ;
120 -> 200 ;
90 [label="total_rec_prncp <= -0.36\ngini = 0.275\nsamples = 79\nvalue = [66, 13]"] ;
15 -> 90 ;
91 [label="gini = 0.0\nsamples = 13\nvalue = [0, 13]"] ;
90 -> 91 ;
92 [label="gini = 0.0\nsamples = 66\nvalue = [66, 0]"] ;
90 -> 92 ;
16 [label="grade <= -1.023\ngini = 0.038\nsamples = 4945\nvalue = [96, 4849]"] ;
13 -> 16 ;
29 [label="total_rec_int <= -0.441\ngini = 0.228\nsamples = 99\nvalue = [86, 13]"] ;
16 -> 29 ;
49 [label="total_rec_prncp <= -0.631\ngini = 0.065\nsamples = 89\nvalue = [86, 3]"] ;
29 -> 49 ;
137 [label="gini = 0.48\nsamples = 5\nvalue = [3, 2]"] ;
49 -> 137 ;
138 [label="earliest_cr_line <= 1.467\ngini = 0.024\nsamples = 84\nvalue = [83, 1]"] ;
49 -> 138 ;
185 [label="gini = 0.0\nsamples = 79\nvalue = [79, 0]"] ;
138 -> 185 ;
186 [label="gini = 0.32\nsamples = 5\nvalue = [4, 1]"] ;
138 -> 186 ;
50 [label="gini = 0.0\nsamples = 10\nvalue = [0, 10]"] ;
29 -> 50 ;
30 [label="grade <= -0.986\ngini = 0.004\nsamples = 4846\nvalue = [10, 4836]"] ;
16 -> 30 ;
95 [label="total_pymnt <= -0.421\ngini = 0.408\nsamples = 21\nvalue = [6, 15]"] ;
30 -> 95 ;
97 [label="gini = 0.0\nsamples = 14\nvalue = [0, 14]"] ;
95 -> 97 ;
98 [label="gini = 0.245\nsamples = 7\nvalue = [6, 1]"] ;
95 -> 98 ;
96 [label="term <= -1.02\ngini = 0.002\nsamples = 4825\nvalue = [4, 4821]"] ;
30 -> 96 ;
175 [label="total_pymnt_inv <= -0.358\ngini = 0.114\nsamples = 66\nvalue = [4, 62]"] ;
96 -> 175 ;
177 [label="gini = 0.0\nsamples = 61\nvalue = [0, 61]"] ;
175 -> 177 ;
178 [label="gini = 0.32\nsamples = 5\nvalue = [4, 1]"] ;
175 -> 178 ;
176 [label="gini = 0.0\nsamples = 4759\nvalue = [0, 4759]"] ;
96 -> 176 ;
14 [label="term <= 0.3\ngini = 0.139\nsamples = 36601\nvalue = [33840, 2761]"] ;
11 -> 14 ;
21 [label="total_rec_prncp <= 0.038\ngini = 0.071\nsamples = 27236\nvalue = [26225, 1011]"] ;
14 -> 21 ;
31 [label="grade <= -0.614\ngini = 0.159\nsamples = 7283\nvalue = [6649, 634]"] ;
21 -> 31 ;
33 [label="term <= -0.786\ngini = 0.013\nsamples = 6684\nvalue = [6641, 43]"] ;
31 -> 33 ;
61 [label="term <= -0.822\ngini = 0.004\nsamples = 6556\nvalue = [6542, 14]"] ;
33 -> 61 ;
217 [label="gini = 0.003\nsamples = 6279\nvalue = [6270, 9]"] ;
61 -> 217 ;
218 [label="gini = 0.035\nsamples = 277\nvalue = [272, 5]"] ;
61 -> 218 ;
62 [label="term <= -0.683\ngini = 0.35\nsamples = 128\nvalue = [99, 29]"] ;
33 -> 62 ;
63 [label="gini = 0.278\nsamples = 24\nvalue = [4, 20]"] ;
62 -> 63 ;
64 [label="gini = 0.158\nsamples = 104\nvalue = [95, 9]"] ;
62 -> 64 ;
34 [label="term <= -0.789\ngini = 0.026\nsamples = 599\nvalue = [8, 591]"] ;
31 -> 34 ;
55 [label="gini = 0.0\nsamples = 8\nvalue = [8, 0]"] ;
34 -> 55 ;
56 [label="gini = 0.0\nsamples = 591\nvalue = [0, 591]"] ;
34 -> 56 ;
32 [label="grade <= 0.187\ngini = 0.037\nsamples = 19953\nvalue = [19576, 377]"] ;
21 -> 32 ;
57 [label="total_rec_late_fee <= 4.058\ngini = 0.021\nsamples = 16604\nvalue = [16431, 173]"] ;
32 -> 57 ;
81 [label="total_rec_int <= 1.446\ngini = 0.018\nsamples = 16350\nvalue = [16203, 147]"] ;
57 -> 81 ;
107 [label="gini = 0.016\nsamples = 16228\nvalue = [16095, 133]"] ;
81 -> 107 ;
108 [label="gini = 0.203\nsamples = 122\nvalue = [108, 14]"] ;
81 -> 108 ;
82 [label="total_rec_prncp <= 0.265\ngini = 0.184\nsamples = 254\nvalue = [228, 26]"] ;
57 -> 82 ;
83 [label="gini = 0.452\nsamples = 55\nvalue = [36, 19]"] ;
82 -> 83 ;
84 [label="gini = 0.068\nsamples = 199\nvalue = [192, 7]"] ;
82 -> 84 ;
58 [label="total_rec_prncp <= 0.761\ngini = 0.114\nsamples = 3349\nvalue = [3145, 204]"] ;
32 -> 58 ;
59 [label="term <= -0.192\ngini = 0.051\nsamples = 192\nvalue = [5, 187]"] ;
58 -> 59 ;
67 [label="gini = 0.0\nsamples = 5\nvalue = [5, 0]"] ;
59 -> 67 ;
68 [label="gini = 0.0\nsamples = 187\nvalue = [0, 187]"] ;
59 -> 68 ;
60 [label="total_rec_prncp <= 0.838\ngini = 0.011\nsamples = 3157\nvalue = [3140, 17]"] ;
58 -> 60 ;
111 [label="gini = 0.401\nsamples = 18\nvalue = [13, 5]"] ;
60 -> 111 ;
112 [label="gini = 0.008\nsamples = 3139\nvalue = [3127, 12]"] ;
60 -> 112 ;
22 [label="total_rec_prncp <= 1.334\ngini = 0.304\nsamples = 9365\nvalue = [7615, 1750]"] ;
14 -> 22 ;
23 [label="grade <= -0.044\ngini = 0.156\nsamples = 1803\nvalue = [154, 1649]"] ;
22 -> 23 ;
27 [label="total_rec_prncp <= 0.279\ngini = 0.229\nsamples = 121\nvalue = [105, 16]"] ;
23 -> 27 ;
51 [label="grade <= -0.2\ngini = 0.245\nsamples = 14\nvalue = [2, 12]"] ;
27 -> 51 ;
145 [label="gini = 0.48\nsamples = 5\nvalue = [2, 3]"] ;
51 -> 145 ;
146 [label="gini = 0.0\nsamples = 9\nvalue = [0, 9]"] ;
51 -> 146 ;
52 [label="last_pymnt_d <= 2.197\ngini = 0.072\nsamples = 107\nvalue = [103, 4]"] ;
27 -> 52 ;
129 [label="gini = 0.02\nsamples = 98\nvalue = [97, 1]"] ;
52 -> 129 ;
130 [label="gini = 0.444\nsamples = 9\nvalue = [6, 3]"] ;
52 -> 130 ;
28 [label="total_rec_prncp <= 0.984\ngini = 0.057\nsamples = 1682\nvalue = [49, 1633]"] ;
23 -> 28 ;
43 [label="grade <= 0.047\ngini = 0.01\nsamples = 1539\nvalue = [8, 1531]"] ;
28 -> 43 ;
93 [label="gini = 0.42\nsamples = 20\nvalue = [6, 14]"] ;
43 -> 93 ;
94 [label="gini = 0.003\nsamples = 1519\nvalue = [2, 1517]"] ;
43 -> 94 ;
44 [label="grade <= 0.587\ngini = 0.409\nsamples = 143\nvalue = [41, 102]"] ;
28 -> 44 ;
45 [label="gini = 0.127\nsamples = 44\nvalue = [41, 3]"] ;
44 -> 45 ;
46 [label="gini = 0.0\nsamples = 99\nvalue = [0, 99]"] ;
44 -> 46 ;
24 [label="total_rec_prncp <= 1.478\ngini = 0.026\nsamples = 7562\nvalue = [7461, 101]"] ;
22 -> 24 ;
77 [label="grade <= 0.935\ngini = 0.172\nsamples = 378\nvalue = [342, 36]"] ;
24 -> 77 ;
79 [label="term <= 0.565\ngini = 0.023\nsamples = 346\nvalue = [342, 4]"] ;
77 -> 79 ;
139 [label="gini = 0.0\nsamples = 323\nvalue = [323, 0]"] ;
79 -> 139 ;
140 [label="gini = 0.287\nsamples = 23\nvalue = [19, 4]"] ;
79 -> 140 ;
80 [label="gini = 0.0\nsamples = 32\nvalue = [0, 32]"] ;
77 -> 80 ;
78 [label="grade <= 3.003\ngini = 0.018\nsamples = 7184\nvalue = [7119, 65]"] ;
24 -> 78 ;
125 [label="total_rec_int <= 6.702\ngini = 0.013\nsamples = 6811\nvalue = [6768, 43]"] ;
78 -> 125 ;
131 [label="gini = 0.012\nsamples = 6806\nvalue = [6765, 41]"] ;
125 -> 131 ;
132 [label="gini = 0.48\nsamples = 5\nvalue = [3, 2]"] ;
125 -> 132 ;
126 [label="total_rec_prncp <= 3.208\ngini = 0.111\nsamples = 373\nvalue = [351, 22]"] ;
78 -> 126 ;
127 [label="gini = 0.0\nsamples = 21\nvalue = [0, 21]"] ;
126 -> 127 ;
128 [label="gini = 0.006\nsamples = 352\nvalue = [351, 1]"] ;
126 -> 128 ;
12 [label="total_rec_late_fee <= 7.352\ngini = 0.003\nsamples = 148399\nvalue = [148188, 211]"] ;
6 -> 12 ;
35 [label="total_rec_late_fee <= 3.429\ngini = 0.002\nsamples = 148033\nvalue = [147898, 135]"] ;
12 -> 35 ;
99 [label="grade <= 3.732\ngini = 0.001\nsamples = 147318\nvalue = [147218, 100]"] ;
35 -> 99 ;
115 [label="last_pymnt_amnt <= -0.126\ngini = 0.001\nsamples = 147253\nvalue = [147162, 91]"] ;
99 -> 115 ;
159 [label="term <= 1.645\ngini = 0.014\nsamples = 7445\nvalue = [7394, 51]"] ;
115 -> 159 ;
161 [label="total_rec_int <= 0.745\ngini = 0.008\nsamples = 7315\nvalue = [7284, 31]"] ;
159 -> 161 ;
165 [label="gini = 0.006\nsamples = 7027\nvalue = [7007, 20]"] ;
161 -> 165 ;
166 [label="gini = 0.073\nsamples = 288\nvalue = [277, 11]"] ;
161 -> 166 ;
162 [label="total_rec_prncp <= 1.904\ngini = 0.26\nsamples = 130\nvalue = [110, 20]"] ;
159 -> 162 ;
163 [label="gini = 0.0\nsamples = 20\nvalue = [0, 20]"] ;
162 -> 163 ;
164 [label="gini = 0.0\nsamples = 110\nvalue = [110, 0]"] ;
162 -> 164 ;
160 [label="total_rec_int <= -1.002\ngini = 0.001\nsamples = 139808\nvalue = [139768, 40]"] ;
115 -> 160 ;
197 [label="gini = 0.278\nsamples = 6\nvalue = [5, 1]"] ;
160 -> 197 ;
198 [label="grade <= 3.357\ngini = 0.001\nsamples = 139802\nvalue = [139763, 39]"] ;
160 -> 198 ;
237 [label="gini = 0.001\nsamples = 139235\nvalue = [139199, 36]"] ;
198 -> 237 ;
238 [label="gini = 0.011\nsamples = 567\nvalue = [564, 3]"] ;
198 -> 238 ;
116 [label="total_rec_prncp <= 3.109\ngini = 0.239\nsamples = 65\nvalue = [56, 9]"] ;
99 -> 116 ;
117 [label="gini = 0.0\nsamples = 9\nvalue = [0, 9]"] ;
116 -> 117 ;
118 [label="gini = 0.0\nsamples = 56\nvalue = [56, 0]"] ;
116 -> 118 ;
100 [label="last_pymnt_amnt <= -0.199\ngini = 0.093\nsamples = 715\nvalue = [680, 35]"] ;
35 -> 100 ;
101 [label="total_rec_prncp <= -0.282\ngini = 0.408\nsamples = 49\nvalue = [35, 14]"] ;
100 -> 101 ;
103 [label="term <= -1.051\ngini = 0.432\nsamples = 19\nvalue = [6, 13]"] ;
101 -> 103 ;
105 [label="gini = 0.245\nsamples = 7\nvalue = [6, 1]"] ;
103 -> 105 ;
106 [label="gini = 0.0\nsamples = 12\nvalue = [0, 12]"] ;
103 -> 106 ;
104 [label="total_rec_int <= 0.565\ngini = 0.064\nsamples = 30\nvalue = [29, 1]"] ;
101 -> 104 ;
195 [label="gini = 0.0\nsamples = 25\nvalue = [25, 0]"] ;
104 -> 195 ;
196 [label="gini = 0.32\nsamples = 5\nvalue = [4, 1]"] ;
104 -> 196 ;
102 [label="last_credit_pull_d <= -0.073\ngini = 0.061\nsamples = 666\nvalue = [645, 21]"] ;
100 -> 102 ;
149 [label="last_credit_pull_d <= -0.228\ngini = 0.1\nsamples = 399\nvalue = [378, 21]"] ;
102 -> 149 ;
151 [label="tot_coll_amt <= 0.014\ngini = 0.011\nsamples = 185\nvalue = [184, 1]"] ;
149 -> 151 ;
207 [label="gini = 0.0\nsamples = 178\nvalue = [178, 0]"] ;
151 -> 207 ;
208 [label="gini = 0.245\nsamples = 7\nvalue = [6, 1]"] ;
151 -> 208 ;
152 [label="emp_length <= 1.301\ngini = 0.169\nsamples = 214\nvalue = [194, 20]"] ;
149 -> 152 ;
153 [label="gini = 0.12\nsamples = 187\nvalue = [175, 12]"] ;
152 -> 153 ;
154 [label="gini = 0.417\nsamples = 27\nvalue = [19, 8]"] ;
152 -> 154 ;
150 [label="gini = 0.0\nsamples = 267\nvalue = [267, 0]"] ;
102 -> 150 ;
36 [label="total_rec_prncp <= 0.289\ngini = 0.329\nsamples = 366\nvalue = [290, 76]"] ;
12 -> 36 ;
37 [label="term <= -0.585\ngini = 0.299\nsamples = 60\nvalue = [11, 49]"] ;
36 -> 37 ;
47 [label="gini = 0.0\nsamples = 11\nvalue = [11, 0]"] ;
37 -> 47 ;
48 [label="gini = 0.0\nsamples = 49\nvalue = [0, 49]"] ;
37 -> 48 ;
38 [label="last_pymnt_amnt <= -0.051\ngini = 0.161\nsamples = 306\nvalue = [279, 27]"] ;
36 -> 38 ;
65 [label="total_rev_hi_lim <= 0.028\ngini = 0.48\nsamples = 50\nvalue = [30, 20]"] ;
38 -> 65 ;
69 [label="grade <= 1.471\ngini = 0.346\nsamples = 36\nvalue = [28, 8]"] ;
65 -> 69 ;
85 [label="revol_bal <= -0.543\ngini = 0.083\nsamples = 23\nvalue = [22, 1]"] ;
69 -> 85 ;
203 [label="gini = 0.32\nsamples = 5\nvalue = [4, 1]"] ;
85 -> 203 ;
204 [label="gini = 0.0\nsamples = 18\nvalue = [18, 0]"] ;
85 -> 204 ;
86 [label="total_rec_prncp <= 2.447\ngini = 0.497\nsamples = 13\nvalue = [6, 7]"] ;
69 -> 86 ;
87 [label="gini = 0.0\nsamples = 7\nvalue = [0, 7]"] ;
86 -> 87 ;
88 [label="gini = 0.0\nsamples = 6\nvalue = [6, 0]"] ;
86 -> 88 ;
70 [label="revol_util <= -0.004\ngini = 0.245\nsamples = 14\nvalue = [2, 12]"] ;
65 -> 70 ;
147 [label="gini = 0.48\nsamples = 5\nvalue = [2, 3]"] ;
70 -> 147 ;
148 [label="gini = 0.0\nsamples = 9\nvalue = [0, 9]"] ;
70 -> 148 ;
66 [label="inq_last_6mths <= 2.767\ngini = 0.053\nsamples = 256\nvalue = [249, 7]"] ;
38 -> 66 ;
141 [label="total_rev_hi_lim <= 2.259\ngini = 0.039\nsamples = 250\nvalue = [245, 5]"] ;
66 -> 141 ;
143 [label="total_rec_prncp <= 1.452\ngini = 0.024\nsamples = 244\nvalue = [241, 3]"] ;
141 -> 143 ;
187 [label="gini = 0.136\nsamples = 41\nvalue = [38, 3]"] ;
143 -> 187 ;
188 [label="gini = 0.0\nsamples = 203\nvalue = [203, 0]"] ;
143 -> 188 ;
144 [label="gini = 0.444\nsamples = 6\nvalue = [4, 2]"] ;
141 -> 144 ;
142 [label="gini = 0.444\nsamples = 6\nvalue = [4, 2]"] ;
66 -> 142 ;
4 [label="last_pymnt_d <= -1.145\ngini = 0.006\nsamples = 354239\nvalue = [353084, 1155]"] ;
1 -> 4 ;
9 [label="gini = 0.0\nsamples = 949\nvalue = [0, 949]"] ;
4 -> 9 ;
10 [label="last_pymnt_d <= 1.263\ngini = 0.001\nsamples = 353290\nvalue = [353084, 206]"] ;
4 -> 10 ;
19 [label="out_prncp <= 3.667\ngini = 0.0\nsamples = 353090\nvalue = [353084, 6]"] ;
10 -> 19 ;
179 [label="total_rec_late_fee <= 14.025\ngini = 0.0\nsamples = 353085\nvalue = [353080, 5]"] ;
19 -> 179 ;
225 [label="total_acc <= -1.684\ngini = 0.0\nsamples = 352914\nvalue = [352911, 3]"] ;
179 -> 225 ;
241 [label="installment <= 2.275\ngini = 0.001\nsamples = 2650\nvalue = [2649, 1]"] ;
225 -> 241 ;
243 [label="gini = 0.0\nsamples = 2543\nvalue = [2543, 0]"] ;
241 -> 243 ;
244 [label="installment <= 2.298\ngini = 0.019\nsamples = 107\nvalue = [106, 1]"] ;
241 -> 244 ;
245 [label="gini = 0.278\nsamples = 6\nvalue = [5, 1]"] ;
244 -> 245 ;
246 [label="gini = 0.0\nsamples = 101\nvalue = [101, 0]"] ;
244 -> 246 ;
242 [label="earliest_cr_line <= -1.562\ngini = 0.0\nsamples = 350264\nvalue = [350262, 2]"] ;
225 -> 242 ;
247 [label="earliest_cr_line <= -1.567\ngini = 0.0\nsamples = 23529\nvalue = [23528, 1]"] ;
242 -> 247 ;
249 [label="gini = 0.0\nsamples = 22574\nvalue = [22574, 0]"] ;
247 -> 249 ;
250 [label="open_acc <= 1.195\ngini = 0.002\nsamples = 955\nvalue = [954, 1]"] ;
247 -> 250 ;
251 [label="gini = 0.0\nsamples = 871\nvalue = [871, 0]"] ;
250 -> 251 ;
252 [label="gini = 0.024\nsamples = 84\nvalue = [83, 1]"] ;
250 -> 252 ;
248 [label="home_ownership <= 1.887\ngini = 0.0\nsamples = 326735\nvalue = [326734, 1]"] ;
242 -> 248 ;
253 [label="gini = 0.0\nsamples = 302356\nvalue = [302356, 0]"] ;
248 -> 253 ;
254 [label="next_pymnt_d <= 1.661\ngini = 0.0\nsamples = 24379\nvalue = [24378, 1]"] ;
248 -> 254 ;
255 [label="gini = 0.0\nsamples = 21374\nvalue = [21374, 0]"] ;
254 -> 255 ;
256 [label="gini = 0.001\nsamples = 3005\nvalue = [3004, 1]"] ;
254 -> 256 ;
226 [label="verification_status <= -0.568\ngini = 0.023\nsamples = 171\nvalue = [169, 2]"] ;
179 -> 226 ;
227 [label="gini = 0.48\nsamples = 5\nvalue = [3, 2]"] ;
226 -> 227 ;
228 [label="gini = 0.0\nsamples = 166\nvalue = [166, 0]"] ;
226 -> 228 ;
180 [label="gini = 0.32\nsamples = 5\nvalue = [4, 1]"] ;
19 -> 180 ;
20 [label="gini = 0.0\nsamples = 200\nvalue = [0, 200]"] ;
10 -> 20 ;
2 [label="gini = 0.0\nsamples = 24186\nvalue = [0, 24186]"] ;
0 -> 2 [labeldistance=2.5, labelangle=-45, headlabel="False"] ;
}